{"layers":[{"type":"Linear","in_features":3,"out_features":4,"bias":true,"weight":[[0.08832372609647089,0.7800676847798306,-0.5046555132486856,-0.9145810519290999],[-0.26776399040114085,0.14840125395764103,-0.28511283997947406,0.47055937922289043],[-0.8093473850254116,-1.1477949995444532,0.4270843192389687,-0.048956322310167985]],"bias_data":[[-0.00842533161707392,-0.008423695257605869,-0.008421365262431509,0.008423491061349098]]},{"type":"LayerNorm","normalized_shape":4,"eps":0.00001,"gamma":[[1.0084262407218862,1.0084283569037118,0.9915805297151303,1.0084291490899437]],"beta":[[-0.008426802819439772,-0.008425189242840542,-0.008423802102715603,0.008424987626211898]]},{"type":"Linear","in_features":4,"out_features":4,"bias":true,"weight":[[0.33184662892514555,-0.4341554092530089,-0.17734937654423083,-0.49457457020921075],[0.004209130306020982,-0.9696368959744419,-0.9042710685051263,-0.021865242897422633],[0.5082176772509694,-1.417599331216498,-0.24793727439517818,0.38725657223510573],[0.1664117076777291,0.9391476740514594,0.7528395464696893,-0.1723350762862068]],"bias_data":[[-0.008426525099429158,0.008424075237664948,-0.008421908511832813,-0.008422803810745694]]},{"type":"ReLU"},{"type":"LayerNorm","normalized_shape":4,"eps":0.00001,"gamma":[[1.0084368342857268,0.991865241672547,0.9915737673158938,0.9916174658527211]],"beta":[[-0.008429549316427701,0.00842805644480323,-0.008425940196047213,-0.008426814773723455]]},{"type":"Linear","in_features":4,"out_features":3,"bias":true,"weight":[[0.3627975503792773,1.865431185021826,1.0901441516715509],[-1.5178422305677899,-0.004438746339237349,0.19753550273773024],[0.17868395823453126,0.2572721290186154,0.5720677968992923],[0.28404256246400544,-0.10942885347223687,1.644551605030565]],"bias_data":[[-0.008428340326386879,0,0]]},{"type":"ReLU"},{"type":"Softmax"}]}