{"layers":[{"type":"Linear","in_features":3,"out_features":4,"bias":true,"weight":[[-0.423426167261299,-0.7315910181508873,-0.3489143086302034,0.7518211160283291],[-0.16743971195841711,-0.33287700330954517,0.058947590957752066,-0.5723946771275024],[0.5102366782655897,0.14762129301973087,-0.26116608443506734,-0.2654107156313325]],"bias_data":[[-0.08299799007263829,-0.22879214618093296,0.25766276461350945,0.15468966535949358]]},{"type":"LayerNorm","normalized_shape":4,"eps":0.00001,"gamma":[[1.209212911594219,1.0567255831606308,1.3865318894398735,1.2721878677010998]],"beta":[[0.17127942630566464,-0.16172017951967108,-0.06829451548392933,0.23725665785891442]]},{"type":"Linear","in_features":4,"out_features":4,"bias":true,"weight":[[-0.17030585626609815,-0.5476126571891347,0.2141589362094757,1.1594854383946493],[0.43194938959680745,-0.6503090707504379,-0.9731775051875503,-0.16214123707527564],[1.3049378483786191,0.21808660958832948,1.1290484122119506,-0.7789544432691561],[0.49611781078668943,1.3148026271269244,-0.23209742546211065,0.7355921909629688]],"bias_data":[[0.05769436746086837,0.10035815259405918,0.15722524721067926,0.24387140443534985]]},{"type":"ReLU"},{"type":"LayerNorm","normalized_shape":4,"eps":0.00001,"gamma":[[1.7003836895401356,1.1338073650459064,1.5365071261748353,1.373723202306201]],"beta":[[-0.5871428915536936,0.06802276840780065,-0.09523600192005623,0.02274862112221248]]},{"type":"Linear","in_features":4,"out_features":3,"bias":true,"weight":[[-0.15769296884815792,-0.6082568890350208,-1.1953021090214961],[1.5510721115429278,0.722072015704119,-1.0588305298512575],[1.154402605991706,-0.4724424878136247,0.9933664707399169],[-1.7503103625708467,0.20913208803550581,0.0708867339946495]],"bias_data":[[-0.05994038743835455,0.5706826138288117,0.22222669568216613]]},{"type":"ReLU"},{"type":"Softmax"}]}