{"layers":[{"type":"Linear","in_features":3,"out_features":4,"bias":true,"weight":[[0.3863907798770652,-0.7853035460610266,0.9252939014197058,1.1398320382361977],[0.5397791706760118,-0.6672495917326571,-1.8600000256318379,0.6307225092805095],[-1.445923190812816,-0.3856323494759413,0.9565859133010186,0.2131996578159925]],"bias_data":[[0.12473077912002342,-0.04547615081027177,-0.06539238798621046,0.11439568205348247]]},{"type":"LayerNorm","normalized_shape":4,"eps":0.00001,"gamma":[[1.850551906726336,1.1677513603594487,0.9904426462237932,1.2393499592233173]],"beta":[[0.33385925839921,-0.20347568853601494,-0.24452399345805917,0.028536642180080014]]},{"type":"Linear","in_features":4,"out_features":4,"bias":true,"weight":[[0.050738279124250434,2.9347452012710873,0.07042009234910832,0.4314946146922648],[0.3960674387735035,-0.7531557242204276,-0.10407976574578717,0.7020288946187466],[1.2641738466600283,-1.8125339847834168,0.48325454591942646,0.6337405841184842],[-0.9127801354043663,-0.04116883080723708,-0.9701490866925467,2.0796380690924745]],"bias_data":[[-0.14572549847915955,0.6356299945634954,-0.1440090432190935,-0.07557939306348092]]},{"type":"ReLU"},{"type":"LayerNorm","normalized_shape":4,"eps":0.00001,"gamma":[[0.5490891742166141,2.1246132748568205,0.15135678395755334,1.4551970462622668]],"beta":[[-0.5670523822090172,-0.5986658970055636,-0.7332412723732461,-0.04717602949003171]]},{"type":"Linear","in_features":4,"out_features":3,"bias":true,"weight":[[-0.5250782371248687,-0.16510457372575132,-0.6545787814227046],[0.7593549148897611,-1.349472846315215,-0.23006138042498264],[-0.1652314676534188,-0.3029332480579743,0.5675074820708779],[-0.7712471916384174,-0.046034064680420775,-0.9461860438409372]],"bias_data":[[0.12360480267002684,0.5989206977521999,-0.018423452782648203]]},{"type":"ReLU"},{"type":"Softmax"}]}